digraph Tree {
node [shape=box, style="filled, rounded", color="black", fontname="helvetica"] ;
edge [fontname="helvetica"] ;
0 [label=<cp &le; 0.167<br/>gini = 0.5<br/>samples = 820<br/>value = [403, 417]<br/>class = Disease>, fillcolor="#f8fcfe"] ;
1 [label=<ca &le; 0.125<br/>gini = 0.357<br/>samples = 400<br/>value = [307, 93]<br/>class = No Disease>, fillcolor="#eda775"] ;
0 -> 1 [labeldistance=2.5, labelangle=45, headlabel="True"] ;
2 [label=<thal &le; 0.833<br/>gini = 0.498<br/>samples = 174<br/>value = [92, 82]<br/>class = No Disease>, fillcolor="#fcf1e9"] ;
1 -> 2 ;
3 [label=<exang &le; 0.5<br/>gini = 0.422<br/>samples = 99<br/>value = [30, 69]<br/>class = Disease>, fillcolor="#8fc8f0"] ;
2 -> 3 ;
4 [label=<gini = 0.219<br/>samples = 64<br/>value = [8, 56]<br/>class = Disease>, fillcolor="#55abe9"] ;
3 -> 4 ;
5 [label=<gini = 0.467<br/>samples = 35<br/>value = [22, 13]<br/>class = No Disease>, fillcolor="#f4cbae"] ;
3 -> 5 ;
6 [label=<oldpeak &le; 0.105<br/>gini = 0.287<br/>samples = 75<br/>value = [62, 13]<br/>class = No Disease>, fillcolor="#ea9b63"] ;
2 -> 6 ;
7 [label=<gini = 0.499<br/>samples = 27<br/>value = [14, 13]<br/>class = No Disease>, fillcolor="#fdf6f1"] ;
6 -> 7 ;
8 [label=<gini = 0.0<br/>samples = 48<br/>value = [48, 0]<br/>class = No Disease>, fillcolor="#e58139"] ;
6 -> 8 ;
9 [label=<trestbps &le; 0.142<br/>gini = 0.093<br/>samples = 226<br/>value = [215, 11]<br/>class = No Disease>, fillcolor="#e68743"] ;
1 -> 9 ;
10 [label=<chol &le; 0.245<br/>gini = 0.43<br/>samples = 16<br/>value = [11, 5]<br/>class = No Disease>, fillcolor="#f1ba93"] ;
9 -> 10 ;
11 [label=<gini = 0.0<br/>samples = 5<br/>value = [0, 5]<br/>class = Disease>, fillcolor="#399de5"] ;
10 -> 11 ;
12 [label=<gini = 0.0<br/>samples = 11<br/>value = [11, 0]<br/>class = No Disease>, fillcolor="#e58139"] ;
10 -> 12 ;
13 [label=<chol &le; 0.401<br/>gini = 0.056<br/>samples = 210<br/>value = [204, 6]<br/>class = No Disease>, fillcolor="#e6853f"] ;
9 -> 13 ;
14 [label=<gini = 0.011<br/>samples = 174<br/>value = [173, 1]<br/>class = No Disease>, fillcolor="#e5823a"] ;
13 -> 14 ;
15 [label=<gini = 0.239<br/>samples = 36<br/>value = [31, 5]<br/>class = No Disease>, fillcolor="#e99559"] ;
13 -> 15 ;
16 [label=<thal &le; 0.833<br/>gini = 0.353<br/>samples = 420<br/>value = [96, 324]<br/>class = Disease>, fillcolor="#74baed"] ;
0 -> 16 [labeldistance=2.5, labelangle=-45, headlabel="False"] ;
17 [label=<age &le; 0.552<br/>gini = 0.245<br/>samples = 315<br/>value = [45, 270]<br/>class = Disease>, fillcolor="#5aade9"] ;
16 -> 17 ;
18 [label=<chol &le; 0.062<br/>gini = 0.078<br/>samples = 197<br/>value = [8.0, 189.0]<br/>class = Disease>, fillcolor="#41a1e6"] ;
17 -> 18 ;
19 [label=<gini = 0.48<br/>samples = 5<br/>value = [3, 2]<br/>class = No Disease>, fillcolor="#f6d5bd"] ;
18 -> 19 ;
20 [label=<gini = 0.051<br/>samples = 192<br/>value = [5, 187]<br/>class = Disease>, fillcolor="#3ea0e6"] ;
18 -> 20 ;
21 [label=<sex &le; 0.5<br/>gini = 0.43<br/>samples = 118<br/>value = [37, 81]<br/>class = Disease>, fillcolor="#93caf1"] ;
17 -> 21 ;
22 [label=<gini = 0.194<br/>samples = 55<br/>value = [6, 49]<br/>class = Disease>, fillcolor="#51a9e8"] ;
21 -> 22 ;
23 [label=<gini = 0.5<br/>samples = 63<br/>value = [31, 32]<br/>class = Disease>, fillcolor="#f9fcfe"] ;
21 -> 23 ;
24 [label=<thalach &le; 0.546<br/>gini = 0.5<br/>samples = 105<br/>value = [51.0, 54.0]<br/>class = Disease>, fillcolor="#f4fafe"] ;
16 -> 24 ;
25 [label=<chol &le; 0.422<br/>gini = 0.219<br/>samples = 24<br/>value = [21, 3]<br/>class = No Disease>, fillcolor="#e99355"] ;
24 -> 25 ;
26 [label=<gini = 0.0<br/>samples = 21<br/>value = [21, 0]<br/>class = No Disease>, fillcolor="#e58139"] ;
25 -> 26 ;
27 [label=<gini = 0.0<br/>samples = 3<br/>value = [0, 3]<br/>class = Disease>, fillcolor="#399de5"] ;
25 -> 27 ;
28 [label=<trestbps &le; 0.802<br/>gini = 0.466<br/>samples = 81<br/>value = [30, 51]<br/>class = Disease>, fillcolor="#add7f4"] ;
24 -> 28 ;
29 [label=<gini = 0.435<br/>samples = 75<br/>value = [24.0, 51.0]<br/>class = Disease>, fillcolor="#96cbf1"] ;
28 -> 29 ;
30 [label=<gini = 0.0<br/>samples = 6<br/>value = [6, 0]<br/>class = No Disease>, fillcolor="#e58139"] ;
28 -> 30 ;
}
